<?xml version="1.0"?>
<opencv_storage>
<cascade>
  <stageType>BOOST</stageType>
  <featureType>HAAR</featureType>
  <height>20</height>
  <width>20</width>
  <stageParams>
    <boostType>GAB</boostType>
    <minHitRate>9.9500000476837158e-01</minHitRate>
    <maxFalseAlarm>5.0000000000000000e-01</maxFalseAlarm>
    <weightTrimRate>9.4999999999999996e-01</weightTrimRate>
    <maxDepth>1</maxDepth>
    <maxWeakCount>100</maxWeakCount></stageParams>
  <featureParams>
    <maxCatCount>0</maxCatCount>
    <featSize>1</featSize>
    <mode>BASIC</mode></featureParams>
  <stageNum>7</stageNum>
  <stages>
    <!-- stage 0 -->
    <_>
      <maxWeakCount>2</maxWeakCount>
      <stageThreshold>-1.1302980780601501e-01</stageThreshold>
      <weakClassifiers>
        <_>
          <internalNodes>
            0 -1 18 1.1487148702144623e-02</internalNodes>
          <leafValues>
            -9.4018691778182983e-01 8.7193673849105835e-01</leafValues></_>
        <_>
          <internalNodes>
            0 -1 4 1.0934306308627129e-02</internalNodes>
          <leafValues>
            -9.0158301591873169e-01 8.2715708017349243e-01</leafValues></_></weakClassifiers></_>
    <!-- stage 1 -->
    <_>
      <maxWeakCount>2</maxWeakCount>
      <stageThreshold>-1.8561108410358429e-01</stageThreshold>
      <weakClassifiers>
        <_>
          <internalNodes>
            0 -1 12 1.3642659410834312e-02</internalNodes>
          <leafValues>
            -9.7071129083633423e-01 8.0484116077423096e-01</leafValues></_>
        <_>
          <internalNodes>
            0 -1 14 -1.4884965494275093e-02</internalNodes>
          <leafValues>
            7.8510022163391113e-01 -8.4687668085098267e-01</leafValues></_></weakClassifiers></_>
    <!-- stage 2 -->
    <_>
      <maxWeakCount>4</maxWeakCount>
      <stageThreshold>-3.6944323778152466e-01</stageThreshold>
      <weakClassifiers>
        <_>
          <internalNodes>
            0 -1 6 -9.5028012990951538e-02</internalNodes>
          <leafValues>
            7.5956284999847412e-01 -7.1868979930877686e-01</leafValues></_>
        <_>
          <internalNodes>
            0 -1 7 -1.9816111773252487e-02</internalNodes>
          <leafValues>
            6.7761474847793579e-01 -8.4656131267547607e-01</leafValues></_>
        <_>
          <internalNodes>
            0 -1 2 1.1773020029067993e-02</internalNodes>
          <leafValues>
            -7.1334064006805420e-01 5.9807455539703369e-01</leafValues></_>
        <_>
          <internalNodes>
            0 -1 13 -1.1538898106664419e-03</internalNodes>
          <leafValues>
            5.1001697778701782e-01 -9.2644274234771729e-01</leafValues></_></weakClassifiers></_>
    <!-- stage 3 -->
    <_>
      <maxWeakCount>5</maxWeakCount>
      <stageThreshold>-7.7740621566772461e-01</stageThreshold>
      <weakClassifiers>
        <_>
          <internalNodes>
            0 -1 3 1.9473254680633545e-02</internalNodes>
          <leafValues>
            -7.2614109516143799e-01 7.2078907489776611e-01</leafValues></_>
        <_>
          <internalNodes>
            0 -1 17 3.2267868518829346e-02</internalNodes>
          <leafValues>
            -7.5743591785430908e-01 6.7638039588928223e-01</leafValues></_>
        <_>
          <internalNodes>
            0 -1 9 6.4712567254900932e-03</internalNodes>
          <leafValues>
            -6.1068683862686157e-01 6.8117141723632812e-01</leafValues></_>
        <_>
          <internalNodes>
            0 -1 1 5.6342380121350288e-03</internalNodes>
          <leafValues>
            -4.9888244271278381e-01 7.2443169355392456e-01</leafValues></_>
        <_>
          <internalNodes>
            0 -1 19 1.0712913353927433e-04</internalNodes>
          <leafValues>
            3.8192376494407654e-01 -9.0701746940612793e-01</leafValues></_></weakClassifiers></_>
    <!-- stage 4 -->
    <_>
      <maxWeakCount>4</maxWeakCount>
      <stageThreshold>-3.9379310607910156e-01</stageThreshold>
      <weakClassifiers>
        <_>
          <internalNodes>
            0 -1 19 -1.1594420357141644e-04</internalNodes>
          <leafValues>
            -8.6206895112991333e-01 6.8149209022521973e-01</leafValues></_>
        <_>
          <internalNodes>
            0 -1 10 -1.2963829562067986e-02</internalNodes>
          <leafValues>
            5.2599173784255981e-01 -8.6209344863891602e-01</leafValues></_>
        <_>
          <internalNodes>
            0 -1 20 -4.4001322239637375e-03</internalNodes>
          <leafValues>
            6.4052730798721313e-01 -6.3889747858047485e-01</leafValues></_>
        <_>
          <internalNodes>
            0 -1 0 6.0795447789132595e-03</internalNodes>
          <leafValues>
            -6.1381751298904419e-01 5.8118158578872681e-01</leafValues></_></weakClassifiers></_>
    <!-- stage 5 -->
    <_>
      <maxWeakCount>3</maxWeakCount>
      <stageThreshold>-1.4066986739635468e-01</stageThreshold>
      <weakClassifiers>
        <_>
          <internalNodes>
            0 -1 15 4.1475957259535789e-03</internalNodes>
          <leafValues>
            -8.8043481111526489e-01 6.4525139331817627e-01</leafValues></_>
        <_>
          <internalNodes>
            0 -1 11 -6.5184682607650757e-03</internalNodes>
          <leafValues>
            4.4283342361450195e-01 -9.4894057512283325e-01</leafValues></_>
        <_>
          <internalNodes>
            0 -1 8 -1.1085172445746139e-04</internalNodes>
          <leafValues>
            -8.7459486722946167e-01 2.9693150520324707e-01</leafValues></_></weakClassifiers></_>
    <!-- stage 6 -->
    <_>
      <maxWeakCount>3</maxWeakCount>
      <stageThreshold>-6.2919390201568604e-01</stageThreshold>
      <weakClassifiers>
        <_>
          <internalNodes>
            0 -1 8 9.0345827629789710e-05</internalNodes>
          <leafValues>
            7.1117562055587769e-01 -9.0047395229339600e-01</leafValues></_>
        <_>
          <internalNodes>
            0 -1 5 8.7634995579719543e-02</internalNodes>
          <leafValues>
            -7.0120024681091309e-01 5.4924762248992920e-01</leafValues></_>
        <_>
          <internalNodes>
            0 -1 16 2.9348745942115784e-02</internalNodes>
          <leafValues>
            -6.3916921615600586e-01 5.2666205167770386e-01</leafValues></_></weakClassifiers></_></stages>
  <features>
    <_>
      <rects>
        <_>
          0 7 2 6 -1.</_>
        <_>
          1 7 1 6 2.</_></rects>
      <tilted>0</tilted></_>
    <_>
      <rects>
        <_>
          0 8 2 5 -1.</_>
        <_>
          1 8 1 5 2.</_></rects>
      <tilted>0</tilted></_>
    <_>
      <rects>
        <_>
          0 8 6 3 -1.</_>
        <_>
          2 8 2 3 3.</_></rects>
      <tilted>0</tilted></_>
    <_>
      <rects>
        <_>
          1 5 6 5 -1.</_>
        <_>
          3 5 2 5 3.</_></rects>
      <tilted>0</tilted></_>
    <_>
      <rects>
        <_>
          1 6 6 3 -1.</_>
        <_>
          3 6 2 3 3.</_></rects>
      <tilted>0</tilted></_>
    <_>
      <rects>
        <_>
          2 2 5 18 -1.</_>
        <_>
          2 8 5 6 3.</_></rects>
      <tilted>0</tilted></_>
    <_>
      <rects>
        <_>
          2 10 17 8 -1.</_>
        <_>
          2 14 17 4 2.</_></rects>
      <tilted>0</tilted></_>
    <_>
      <rects>
        <_>
          3 7 15 1 -1.</_>
        <_>
          8 7 5 1 3.</_></rects>
      <tilted>0</tilted></_>
    <_>
      <rects>
        <_>
          3 9 2 1 -1.</_>
        <_>
          4 9 1 1 2.</_></rects>
      <tilted>0</tilted></_>
    <_>
      <rects>
        <_>
          4 0 12 2 -1.</_>
        <_>
          4 1 12 1 2.</_></rects>
      <tilted>0</tilted></_>
    <_>
      <rects>
        <_>
          4 5 12 6 -1.</_>
        <_>
          4 7 12 2 3.</_></rects>
      <tilted>0</tilted></_>
    <_>
      <rects>
        <_>
          7 12 6 4 -1.</_>
        <_>
          7 14 6 2 2.</_></rects>
      <tilted>0</tilted></_>
    <_>
      <rects>
        <_>
          8 7 3 9 -1.</_>
        <_>
          8 10 3 3 3.</_></rects>
      <tilted>0</tilted></_>
    <_>
      <rects>
        <_>
          8 11 4 1 -1.</_>
        <_>
          10 11 2 1 2.</_></rects>
      <tilted>0</tilted></_>
    <_>
      <rects>
        <_>
          9 8 6 4 -1.</_>
        <_>
          11 8 2 4 3.</_></rects>
      <tilted>0</tilted></_>
    <_>
      <rects>
        <_>
          11 10 6 1 -1.</_>
        <_>
          14 10 3 1 2.</_></rects>
      <tilted>0</tilted></_>
    <_>
      <rects>
        <_>
          12 1 6 8 -1.</_>
        <_>
          12 1 3 4 2.</_>
        <_>
          15 5 3 4 2.</_></rects>
      <tilted>0</tilted></_>
    <_>
      <rects>
        <_>
          13 5 6 6 -1.</_>
        <_>
          15 5 2 6 3.</_></rects>
      <tilted>0</tilted></_>
    <_>
      <rects>
        <_>
          13 7 6 4 -1.</_>
        <_>
          15 7 2 4 3.</_></rects>
      <tilted>0</tilted></_>
    <_>
      <rects>
        <_>
          15 10 2 1 -1.</_>
        <_>
          16 10 1 1 2.</_></rects>
      <tilted>0</tilted></_>
    <_>
      <rects>
        <_>
          18 8 2 5 -1.</_>
        <_>
          19 8 1 5 2.</_></rects>
      <tilted>0</tilted></_></features></cascade>
</opencv_storage>
